digraph Tree {
node [shape=box, fontname="helvetica"] ;
edge [fontname="helvetica"] ;
0 [label="proline <= 755.0\ngini = 0.658\nsamples = 142\nvalue = [47, 57, 38]"] ;
1 [label="od280/od315_of_diluted_wines <= 2.115\ngini = 0.495\nsamples = 91\nvalue = [2, 55, 34]"] ;
0 -> 1 [labeldistance=2.5, labelangle=45, headlabel="True"] ;
2 [label="hue <= 0.935\ngini = 0.229\nsamples = 38\nvalue = [0, 5, 33]"] ;
1 -> 2 ;
3 [label="flavanoids <= 1.58\ngini = 0.059\nsamples = 33\nvalue = [0, 1, 32]"] ;
2 -> 3 ;
4 [label="gini = 0.0\nsamples = 32\nvalue = [0, 0, 32]"] ;
3 -> 4 ;
5 [label="gini = 0.0\nsamples = 1\nvalue = [0, 1, 0]"] ;
3 -> 5 ;
6 [label="flavanoids <= 0.825\ngini = 0.32\nsamples = 5\nvalue = [0, 4, 1]"] ;
2 -> 6 ;
7 [label="gini = 0.0\nsamples = 1\nvalue = [0, 0, 1]"] ;
6 -> 7 ;
8 [label="gini = 0.0\nsamples = 4\nvalue = [0, 4, 0]"] ;
6 -> 8 ;
9 [label="flavanoids <= 0.745\ngini = 0.108\nsamples = 53\nvalue = [2, 50, 1]"] ;
1 -> 9 ;
10 [label="gini = 0.0\nsamples = 1\nvalue = [0, 0, 1]"] ;
9 -> 10 ;
11 [label="alcohol <= 13.175\ngini = 0.074\nsamples = 52\nvalue = [2, 50, 0]"] ;
9 -> 11 ;
12 [label="gini = 0.0\nsamples = 47\nvalue = [0, 47, 0]"] ;
11 -> 12 ;
13 [label="color_intensity <= 4.06\ngini = 0.48\nsamples = 5\nvalue = [2, 3, 0]"] ;
11 -> 13 ;
14 [label="gini = 0.0\nsamples = 3\nvalue = [0, 3, 0]"] ;
13 -> 14 ;
15 [label="gini = 0.0\nsamples = 2\nvalue = [2, 0, 0]"] ;
13 -> 15 ;
16 [label="flavanoids <= 2.165\ngini = 0.214\nsamples = 51\nvalue = [45, 2, 4]"] ;
0 -> 16 [labeldistance=2.5, labelangle=-45, headlabel="False"] ;
17 [label="malic_acid <= 1.825\ngini = 0.32\nsamples = 5\nvalue = [0, 1, 4]"] ;
16 -> 17 ;
18 [label="gini = 0.0\nsamples = 1\nvalue = [0, 1, 0]"] ;
17 -> 18 ;
19 [label="gini = 0.0\nsamples = 4\nvalue = [0, 0, 4]"] ;
17 -> 19 ;
20 [label="magnesium <= 135.5\ngini = 0.043\nsamples = 46\nvalue = [45, 1, 0]"] ;
16 -> 20 ;
21 [label="gini = 0.0\nsamples = 45\nvalue = [45, 0, 0]"] ;
20 -> 21 ;
22 [label="gini = 0.0\nsamples = 1\nvalue = [0, 1, 0]"] ;
20 -> 22 ;
}